[[[[ 1.03123553e-01  3.48711461e-01 -2.08430439e-01 -6.01365149e-01
     1.10039838e-01 -2.06738576e-01  1.23072546e-02  1.26428545e-01
     5.80206156e-01 -3.53596687e-01  1.92287534e-01 -3.25937063e-01
    -2.69706637e-01  4.74333674e-01 -1.68560907e-01  1.05815813e-01
    -9.96339023e-02  7.22646415e-02 -2.99172997e-02  4.46215749e-01
    -2.24678703e-02  1.89239547e-01  3.48922223e-01  9.46277156e-02
     1.53808549e-01 -6.33558482e-02  4.48747247e-01  8.38958994e-02
    -2.03711689e-01  3.80263180e-01 -2.60603316e-02 -4.87358838e-01
    -5.95103920e-01  2.19248861e-01  1.78055525e-01  4.03365850e-01
    -4.80382070e-02  5.64333141e-01  4.16092843e-01 -3.50089967e-01
     1.45711273e-01 -4.64746565e-01  1.19832419e-01  2.04046583e-03
    -1.91720482e-02  1.47063628e-01  3.06293011e-01 -4.44472015e-01
     1.77830637e-01  5.45031846e-01 -2.08687559e-01  6.61828965e-02
    -8.52480680e-02  5.13571799e-01 -2.42281124e-01 -6.29989579e-02
     3.08657318e-01  2.84427047e-01 -8.66490975e-02  2.91102409e-01
    -1.63086385e-01 -1.41927764e-01  3.92819911e-01 -4.68374074e-01]]

  [[ 4.41509783e-01 -7.34085739e-01  4.53175366e-01  1.36766747e-01
     5.43306470e-01  9.61746126e-02 -5.42830408e-01 -2.45971754e-01
    -5.22702694e-01 -2.44266987e-01 -1.53087974e-01  5.75137794e-01
     3.11521024e-01 -1.92764848e-01  4.12431896e-01 -3.60877275e-01
    -3.97229016e-01 -2.59586632e-01 -4.48904663e-01 -2.63273120e-01
    -3.23502183e-01 -3.13302487e-01  3.48421365e-01  1.53191835e-01
     1.24973215e-01 -3.93944681e-01 -6.25497043e-01  2.17377558e-01
     1.96963679e-02  4.13268566e-01  3.53169262e-01 -5.26891053e-01
     2.68091291e-01  3.50383133e-01  2.11443424e-01 -1.67531997e-01
    -1.01299204e-01 -2.13956580e-01  7.70973787e-02 -8.00489247e-01
    -7.98484907e-02  6.33049846e-01 -7.80864283e-02 -3.60216051e-01
     2.27192342e-01  2.41974249e-01 -6.56782448e-01  7.71697581e-01
    -6.38595223e-02  4.95676160e-01 -3.84457499e-01  7.33094066e-02
     3.04538906e-01 -4.17950124e-01  1.90894678e-01  4.75912690e-01
    -3.19150060e-01 -1.60566330e-01 -3.28331679e-01  6.73507452e-01
    -2.60810882e-01 -6.56666234e-02 -7.81924844e-01  2.09129170e-01]]

  [[-5.45892715e-01  3.59338462e-01 -9.36924666e-02  2.40829512e-01
    -6.55624449e-01  1.04131199e-01  5.61165035e-01  1.94808438e-01
    -2.41757989e-01  6.05619550e-01 -3.50850821e-01 -3.28378290e-01
     1.29220665e-01 -4.44993526e-01 -3.75501931e-01  2.98874766e-01
    -9.94434714e-01 -8.20735276e-01  4.89406168e-01 -2.95076948e-02
    -5.49290717e-01 -1.76661879e-01 -6.99355185e-01 -2.07707927e-01
    -3.03004414e-01 -8.30732763e-01 -7.93745592e-02 -2.14474201e-01
     2.01244131e-01 -6.51099440e-03  1.01958066e-01 -1.22623652e-01
     4.72541600e-01 -3.08794409e-01  3.45894814e-01 -7.56574571e-02
     3.21680814e-01 -3.12868834e-01 -6.08675301e-01 -1.40914574e-01
    -2.73771942e-01 -2.70848395e-03  1.16095528e-01 -2.03707218e-01
    -1.85256019e-01 -1.69501916e-01  5.40205240e-01 -1.34878322e-01
    -1.37478188e-01  2.21190423e-01 -3.31926733e-01 -3.18371765e-02
     2.21832290e-01 -1.65558264e-01  3.65033686e-01  1.70150921e-02
     1.46614343e-01 -4.03385401e-01  6.85059279e-02  3.73737007e-01
     4.81131077e-01  1.70462996e-01  4.37427431e-01  5.97982168e-01]]]


 [[[ 4.76909518e-01  7.11686850e-01 -3.38530242e-01  2.32205808e-01
     2.42170632e-01 -2.60471225e-01  5.77801168e-01 -3.02584887e-01
     5.00878692e-01 -4.09614086e-01  2.56222755e-01 -1.09825268e-01
    -6.04407132e-01 -8.50902975e-01  2.98834946e-02  4.54219639e-01
     4.41890150e-01  1.81952752e-02 -8.68727639e-03 -1.14014879e-01
     2.36585021e-01  2.85516709e-01 -1.63353547e-01 -3.81823540e-01
    -4.91240740e-01  5.34952246e-02  2.05464661e-01 -1.03402108e-01
    -4.88355309e-01 -2.12085277e-01 -2.63601780e-01  4.37931478e-01
     1.50320321e-01 -4.94644880e-01  3.42867732e-01 -5.00144660e-02
     2.93554425e-01  1.27949283e-01  6.37117207e-01  4.99578893e-01
    -1.19607911e-01  6.67217672e-02  2.71106154e-01 -5.21777451e-01
    -1.51842982e-01 -5.34151554e-01  9.98926163e-02 -3.34838718e-01
    -2.25232109e-01  8.01658109e-02  7.28456914e-01 -6.79477528e-02
    -4.51223910e-01 -3.32377069e-02  1.44388109e-01 -4.52805370e-01
     1.54754087e-01  1.09551348e-01 -1.87565610e-01 -1.14304563e-02
    -4.21529487e-02 -2.13418245e-01 -2.54988968e-01  1.82421982e-01]]

  [[ 7.78713822e-02 -4.04488891e-01  3.15694898e-01  5.55577397e-01
    -2.15226278e-01 -1.70373291e-01 -3.98643970e-01  1.08949065e-01
    -5.08456945e-01 -1.27561018e-01  1.28248200e-01  5.12526035e-01
     5.23075283e-01 -4.01960760e-01  5.00240922e-01 -8.04123998e-01
    -2.95458943e-01 -1.18893996e-01 -5.19135833e-01 -6.48080111e-02
     6.92468166e-01 -3.12378317e-01  2.28568703e-01  5.78999162e-01
    -2.07038037e-02  2.21184820e-01 -2.86571458e-02  6.76545382e-01
     4.65762526e-01 -5.16099274e-01  5.67329163e-03  3.96955818e-01
    -2.26119190e-01 -4.20609675e-02  4.63402003e-01 -3.55179369e-01
     4.42642599e-01 -6.40585124e-01 -9.65027660e-02  5.76524198e-01
     2.40054533e-01  9.83276889e-02 -2.99692035e-01 -4.61151183e-01
     1.35925204e-01 -7.17794895e-01 -3.29044968e-01  1.69453546e-01
     1.19874842e-01 -6.49427593e-01  2.60182142e-01 -3.07582133e-02
    -3.33738208e-01  5.70136249e-01  2.75327533e-01  6.73034042e-02
    -4.59580600e-01  3.11960489e-01  2.46652186e-01  1.01294115e-01
    -6.00259840e-01 -1.20754890e-01  3.24179500e-01 -5.83494544e-01]]

  [[-6.71553671e-01 -3.68041784e-01  1.53110161e-01 -6.19787537e-02
    -9.26874112e-03  7.42834866e-01 -1.43051267e-01  7.92688876e-02
    -9.91452113e-02  6.06826186e-01 -5.28307438e-01 -3.45117927e-01
     1.84152260e-01  5.40390551e-01 -7.39737570e-01  3.90420109e-01
    -7.60211647e-01  2.62190133e-01  4.62184072e-01  2.45133899e-02
     3.27203989e-01 -1.16208024e-01  5.79737782e-01 -6.94172606e-02
     5.62048137e-01  5.00609517e-01 -3.84092070e-02 -6.02616131e-01
     1.27428010e-01 -3.35750192e-01 -3.25409211e-02  3.57388467e-01
     2.62688160e-01  5.49483120e-01  7.90142640e-02  4.47221398e-01
     2.09591627e-01  3.81636947e-01 -4.56420064e-01 -5.29764406e-02
    -2.80469060e-01 -7.69238994e-02  3.02394509e-01  8.10111314e-02
    -3.58104408e-02 -1.42254978e-01  1.96741611e-01  3.29718769e-01
     9.22871009e-02 -3.59320909e-01  3.75518471e-01 -2.58025955e-02
    -4.65338320e-01 -4.62904960e-01 -1.64956808e-01  2.73746073e-01
     2.59298861e-01  5.02703488e-02  7.78843164e-02  1.70618087e-01
     5.42033792e-01 -4.93949622e-01 -1.18032433e-01 -1.21763930e-01]]]


 [[[ 2.40019530e-01  1.41067489e-04 -1.99396517e-02  2.30693996e-01
    -4.16573912e-01 -5.15760422e-01  2.76246011e-01  9.73100960e-02
     3.18820000e-01 -3.30363572e-01 -6.13399222e-02  2.29772955e-01
    -5.08692741e-01  1.44248202e-01  3.88587147e-01  4.51608628e-01
     2.80675948e-01 -3.52353491e-02  2.53203651e-03  2.23382451e-02
    -1.31803811e-01  2.05021337e-01 -3.50853145e-01 -6.35999978e-01
     1.36781484e-01  7.22042769e-02 -6.34563327e-01 -1.45594487e-02
     1.02407999e-01 -8.57154950e-02  7.29396492e-02 -7.39032775e-03
     4.46415424e-01 -2.12268140e-02 -5.57432473e-01 -4.19749945e-01
    -2.45131791e-01 -3.73747051e-02  3.34724903e-01 -1.47749618e-01
    -1.01942062e-01 -4.84862849e-02 -6.24417886e-02  4.53953654e-01
     9.57282409e-02  3.93595815e-01  3.84987175e-01 -3.02954882e-01
    -2.00696383e-02 -1.95162799e-02  4.51477349e-01  2.01969407e-02
     5.17574012e-01 -4.47114706e-01  1.12473980e-01  9.36175585e-02
     1.82146922e-01 -6.38558209e-01  1.66596591e-01 -3.51910442e-01
     1.30414590e-01  2.53652126e-01 -1.58644617e-01  3.22017610e-01]]

  [[-3.16638082e-01  1.07164778e-01 -1.21823490e-01 -4.45240349e-01
    -2.41225734e-01  1.40359819e-01  1.34948827e-02  1.09137759e-01
    -4.54176486e-01 -1.72780201e-01  3.78737412e-02  4.15349603e-01
     6.47635281e-01  2.31763154e-01 -1.57165259e-01 -2.33563185e-01
     3.90568525e-01  4.61698920e-01 -5.74037731e-01 -2.19489619e-01
    -2.20072895e-01 -1.47800118e-01 -4.10137653e-01  5.02344429e-01
    -3.21532451e-02  1.87361047e-01  6.18246615e-01  5.19324422e-01
     5.47112763e-01 -1.15492128e-01 -3.25652301e-01  1.12142630e-01
     4.67373401e-01 -6.20803563e-04 -6.56074703e-01  6.12411462e-02
    -1.16466150e-01 -3.59142631e-01 -1.62129954e-01  2.17736691e-01
    -5.98381311e-02 -5.18456757e-01 -8.48514214e-02  7.43573248e-01
     2.47935399e-01  4.41905737e-01 -2.23047838e-01  1.20789155e-01
    -1.84669998e-02 -4.90984529e-01 -8.32572281e-02  7.72629455e-02
     1.68666855e-01 -1.04538135e-01 -1.48335084e-01 -4.37071413e-01
    -5.83769917e-01  5.27912796e-01  1.65616125e-01 -6.61031067e-01
    -5.82440376e-01  9.21235606e-02  4.43073064e-01  2.27829561e-01]]

  [[ 2.02512648e-02 -9.48005617e-02  1.59826398e-01 -3.15586448e-01
     6.84882224e-01  1.30444840e-01 -3.51695031e-01 -1.87146485e-01
     2.58619457e-01  3.68021220e-01  1.49727613e-01 -5.26117086e-01
    -1.21542104e-01 -3.65750462e-01 -4.95130494e-02 -2.41681218e-01
     1.43929973e-01  6.04956865e-01  4.75146055e-01  2.48544961e-01
     2.39675313e-01  3.64136219e-01  1.46220490e-01 -6.48881346e-02
    -1.86342299e-01  3.53267878e-01  1.34715185e-01 -5.08420944e-01
    -6.62229359e-01  1.29061192e-01  2.71667894e-02 -3.04339767e-01
    -6.29450738e-01 -5.08007072e-02 -4.79719698e-01  1.96933344e-01
    -4.53565180e-01  5.21064043e-01 -2.50729293e-01  1.66128859e-01
     6.04583800e-01  3.18514258e-01  2.50676692e-01  2.21663058e-01
    -3.40568364e-01  3.46428037e-01  8.41399953e-02  6.72234297e-02
     3.57650779e-02  1.93371400e-01 -1.88745543e-01 -2.00187787e-02
     7.79620409e-02  5.37878871e-01 -1.80931732e-01  1.40112042e-01
     5.31039894e-01 -1.31943047e-01 -1.66857883e-01 -5.31861722e-01
     3.22047830e-01 -1.22526819e-02 -3.00359309e-01 -5.20736814e-01]]]]
[-0.35723662  1.2809374   2.4977105  -1.2392468   0.7369332   1.9749432
  1.3976727   2.944325    1.2126741   1.0698987   2.3393931   0.22597091
  0.6112951  -0.7924555   1.2164793   1.144547   -1.5129167   1.2446277
  0.799427    2.6743324   1.068212    2.367083    0.77341336  1.1007972
  2.1543622   0.9134596   0.78005487  0.8396315   0.4736933  -1.986032
  2.8070328  -1.3231734  -0.5493564   1.8155959   0.8817233  -1.9387976
  2.004414   -1.263936    0.9912735   0.6205968   1.9514184   1.3383738
  2.6360667   0.5448389   2.536078   -0.2257795   1.5762073   1.7164203
 -3.4247007   0.9140909   0.4272328   3.7684917  -1.6554973  -1.0974405
  2.5577674   1.8955412   1.5866462   0.53853655  2.817654    0.56593496
  1.0672737  -2.5678923  -1.0224783   0.49601355]
[ 0.30464625  0.98579633  0.04843945  0.20917292  1.0579404   0.07639214
  0.32441956  0.00911614  0.7543267   0.35664895  0.02419481  0.64572203
  1.2974594   0.39937264  0.37933794  0.937176    0.45366746  0.3409508
  0.9576246   0.0246112   0.32451418  0.0385928   1.033418    0.2625312
 -0.00770563  0.2519128   0.64860255  0.6465608   0.57042974  0.08056422
 -0.01949731  0.35226     0.28559607 -0.03882768  0.7257905   0.04035539
  0.06611519  0.3341967   0.13437232  0.8171907   0.00501316  0.0294014
 -0.0118047   0.72080594  0.04232765  0.6336224   0.07515037  0.11344308
 -0.00337704  0.49761733  0.14973943  0.00253671  0.06064989  1.077597
 -0.03744937  0.02412727  0.08440811  0.15685567 -0.00176681  0.9731176
  0.7779919  -0.04711542  0.8836129   0.90581524]
[ 1.7255610e-02 -2.5246069e-01 -4.7902102e-03 -1.2056695e-01
 -3.6353838e-01 -4.1025206e-02 -1.4307791e-01 -1.1018349e-02
 -1.2178873e-01 -1.2406983e-01  2.0752810e-03 -1.0126816e-01
 -3.2230586e-01  6.3095289e-01 -9.9957526e-02 -3.6087972e-01
  1.0886587e-02 -1.1572844e-01 -2.2839102e-01 -5.5612046e-03
 -1.6040361e-01  3.1188134e-02 -3.9184919e-01 -1.0289739e-01
 -7.7593653e-03 -7.0963025e-02 -2.3245883e-01 -1.7250903e-01
 -2.9990983e-01 -3.2635001e-03 -1.6209045e-02 -1.0829008e-01
  1.0891104e+00 -2.4788888e-02 -2.1023020e-01  7.8295555e-04
  9.5984451e-03  4.2384099e-03 -4.1880240e-03 -2.7647117e-01
  2.2614961e-03 -1.3067194e-02 -3.8719936e-03 -1.8232793e-01
  4.3200292e-03 -2.3282513e-01 -2.6305890e-02 -7.0427880e-02
 -1.9207405e-04 -1.6738328e-01 -2.6786229e-01  2.4195282e-02
 -2.1718787e-02 -2.8249291e-01 -6.5017855e-03 -2.5443314e-02
 -1.4122187e-02 -5.9164066e-02 -1.5755534e-02 -2.0781881e-01
 -2.8057042e-01  1.7392932e-02 -3.5309839e-01 -4.0685311e-01]
[0.4018121  0.77501684 0.92883813 0.22560747 0.67806756 0.87686175
 0.79781914 0.94951415 0.75821483 0.7340176  0.90202737 0.5657024
 0.66734457 0.26158318 0.7598338  0.7596416  0.14040205 0.7851646
 0.6757669  0.93579185 0.7591471  0.91081244 0.6851308  0.7496325
 0.89393425 0.71888155 0.6873749  0.7025626  0.62907857 0.11047412
 0.94227177 0.20803927 0.41395625 0.86693794 0.70156914 0.12953936
 0.89053154 0.22255427 0.71707845 0.65004206 0.8776778  0.7909223
 0.94246197 0.63197297 0.92740047 0.44828853 0.84265    0.8544777
 0.03117403 0.71454936 0.6524766  0.97796416 0.15640165 0.24645889
 0.93523914 0.87197477 0.8351972  0.63013434 0.9427451  0.6391415
 0.72929895 0.06214731 0.2661302  0.60762924]
[4.11654916e-03 1.47012668e-03 1.09698696e-04 5.28910314e-04
 7.49003317e-04 8.52175639e-04 8.80129228e-04 6.18674903e-06
 2.66044098e-03 4.64558229e-03 3.01932188e-04 3.23206023e-03
 3.83279123e-03 3.01313750e-03 1.78375887e-03 1.38239725e-03
 3.40468949e-03 1.49507390e-03 3.52370832e-03 2.71978388e-05
 1.00131787e-03 1.70638581e-04 9.04519751e-04 1.23498589e-03
 6.08194969e-05 1.82090816e-03 6.39271981e-04 2.68527330e-03
 1.56109373e-03 3.02824221e-04 2.49551449e-05 6.86840678e-04
 3.37772514e-03 1.98659254e-04 2.61526299e-03 2.37659726e-04
 2.63300957e-04 9.96148214e-04 4.94322088e-03 1.78889767e-03
 1.13513510e-04 4.48896113e-04 1.01010373e-04 2.60613323e-03
 5.53867721e-05 1.63287297e-03 6.40912564e-04 8.70965596e-04
 1.18632215e-06 1.97604508e-03 4.60407836e-03 6.61335093e-07
 2.89791235e-04 4.26932325e-04 7.42748889e-05 2.86792958e-04
 6.94057846e-04 9.23030137e-04 1.64216981e-05 3.90847679e-03
 2.86026439e-03 1.02636448e-04 3.47968657e-04 1.19348487e-03]
[[[[ 2.94830680e-01 -4.95507330e-01 -7.74890304e-01 ... -4.67142016e-01
    -5.84345996e-01  3.83928418e-01]
   [ 2.94321954e-01  1.15216292e-01 -4.88481700e-01 ... -1.81290478e-01
    -1.82754006e-02 -3.54563445e-01]
   [-4.70334381e-01  1.51031196e-01  9.65221375e-02 ... -5.17853558e-01
     1.40659019e-01  5.12722954e-02]
   ...
   [-2.48052120e-01 -2.96483606e-01 -1.43545896e-01 ... -3.53949256e-02
    -3.96116704e-01 -2.92661160e-01]
   [ 3.59477907e-01  6.42354041e-02 -6.67156696e-01 ...  5.01799643e-01
    -2.22375780e-01 -3.28653514e-01]
   [ 1.33223221e-01 -2.66555756e-01  1.33065537e-01 ...  8.05107236e-01
     4.47901040e-01 -9.94118601e-02]]

  [[-3.06050748e-01  1.85454756e-01  1.19626112e-01 ...  1.82156667e-01
     8.58978629e-02 -6.79210126e-01]
   [ 6.26151502e-01  1.18262850e-01  5.45390964e-01 ... -2.22972989e-01
     2.16095835e-01  6.25732690e-02]
   [ 3.19473147e-01  3.67779791e-01 -2.79490277e-02 ... -3.81180763e-01
    -6.21535420e-01  2.70258158e-01]
   ...
   [ 1.08351216e-01 -9.39130634e-02  8.32527220e-01 ...  2.07884282e-01
     2.43141845e-01 -6.71433985e-01]
   [-4.21306849e-01  2.88433641e-01  1.38385087e-01 ...  1.64891869e-01
     4.74968404e-02 -2.92457104e-01]
   [ 1.08487420e-01  8.01674366e-01  1.06608905e-01 ...  1.02318943e+00
     3.28993380e-01  3.66416246e-01]]

  [[-1.15248096e+00 -4.70950305e-01  6.09911501e-01 ...  2.32250869e-01
    -3.73997450e-01 -3.01632255e-01]
   [-1.00696719e+00 -2.49625057e-01 -1.43125340e-01 ... -4.79989648e-01
    -6.93529487e-01  2.76991338e-01]
   [-1.74318433e-01  3.53211343e-01  2.93993235e-01 ... -1.25607669e-01
    -8.53389323e-01  6.68482482e-02]
   ...
   [ 3.89954746e-02 -2.02944264e-01  6.96556091e-01 ...  7.52692148e-02
     1.71636656e-01 -4.64133114e-01]
   [-5.19965291e-01 -1.78367645e-01 -3.05717826e-01 ... -3.61415893e-02
    -1.03557968e+00 -3.15713167e-01]
   [ 1.75653011e-01 -4.71185476e-01 -8.35043713e-02 ...  4.30533081e-01
     1.16217911e-01  4.97722417e-01]]]


 [[[ 7.38849461e-01 -2.21287280e-01  1.09417059e-01 ... -1.87178701e-01
    -1.33594215e-01  2.25163564e-01]
   [-4.61082220e-01  2.81501282e-02  4.58930433e-01 ... -2.61039495e-01
     1.79943010e-01 -6.24857187e-01]
   [-1.89767614e-01 -5.42423804e-04 -9.03609335e-01 ... -5.65225005e-01
    -1.84438407e-01  1.02186263e-01]
   ...
   [-3.50297131e-02 -3.10586035e-01  8.54253232e-01 ... -3.21650863e-01
    -9.30670053e-02 -2.91999638e-01]
   [ 2.26468161e-01 -3.33772749e-01  4.35068421e-02 ...  1.58613861e-01
    -3.44968408e-01 -2.34944597e-01]
   [ 4.33571786e-02 -2.60318011e-01  8.91915321e-01 ...  8.76625299e-01
     2.08318308e-02 -1.22930479e+00]]

  [[ 2.02393413e-01 -3.75741422e-01 -1.06971867e-01 ... -7.54520595e-02
    -6.52531743e-01 -4.98466402e-01]
   [ 1.01014304e+00 -5.33933416e-02 -2.30707094e-01 ... -3.13599110e-01
     3.45893323e-01  1.35036841e-01]
   [-7.65527338e-02  2.21880957e-01  3.56430501e-01 ... -3.35592002e-01
    -3.38417232e-01 -9.68763530e-02]
   ...
   [ 2.50343591e-01 -4.21372391e-02  2.12021783e-01 ... -3.40468526e-01
     4.78997707e-01 -2.54677758e-02]
   [-3.73700738e-01  3.29827040e-01 -1.94867402e-01 ...  4.93553698e-01
     1.84530124e-01  1.91421464e-01]
   [ 4.10244852e-01 -9.54649225e-02  4.12212014e-01 ... -2.82474190e-01
     4.37618077e-01  7.75456950e-02]]

  [[-5.31250715e-01  1.52989939e-01 -9.92862433e-02 ... -1.60224736e-01
    -2.59898335e-01 -9.12333578e-02]
   [-3.56006205e-01 -7.13294223e-02 -8.89985263e-02 ... -2.33800441e-01
    -5.76301396e-01  2.61764646e-01]
   [ 8.01836923e-02  3.59953523e-01  9.06135812e-02 ... -3.95589381e-01
    -5.38194418e-01  2.36759521e-02]
   ...
   [ 1.28989294e-01 -8.03558469e-01  2.52141714e-01 ... -4.23577011e-01
     3.38055268e-02 -8.98531303e-02]
   [ 2.05517560e-01  7.80734897e-01  1.44423917e-01 ... -4.87479389e-01
     5.47315888e-02 -4.63223010e-01]
   [ 2.59771198e-01  3.32372010e-01  1.47827685e-01 ... -5.49855530e-01
    -3.18163007e-01  1.35696262e-01]]]


 [[[ 8.44336450e-01 -3.24197590e-01  1.94970399e-01 ...  1.95558995e-01
     4.45457399e-01 -1.10943608e-01]
   [-8.13080966e-01 -2.66033351e-01  2.76080221e-01 ...  1.80929035e-01
     2.15195090e-01 -4.01817471e-01]
   [-6.33190125e-02  1.42723903e-01 -4.66692865e-01 ... -4.51322570e-02
    -1.84893698e-01  6.02962136e-01]
   ...
   [-4.75510538e-01  1.29099146e-01  7.37154484e-01 ... -3.62142533e-01
     6.02094471e-01 -2.52824545e-01]
   [-1.36479095e-01 -4.92279343e-02  2.52920270e-01 ...  6.62109435e-01
     4.28965986e-02  3.69299591e-01]
   [-3.65578771e-01 -5.40558279e-01  4.76536810e-01 ... -6.35838788e-03
     4.16520625e-01 -6.88898802e-01]]

  [[ 4.08407480e-01  1.87579483e-01 -5.48595726e-01 ...  2.40708083e-01
    -9.51151252e-02  1.58959508e-01]
   [ 1.02918625e+00  3.46956223e-01 -2.05043256e-01 ...  2.97953635e-01
     4.20047998e-01  2.89579749e-01]
   [-3.69292676e-01 -7.77653381e-02 -1.26493663e-01 ...  2.88785994e-02
    -2.40664393e-01 -5.00437915e-01]
   ...
   [ 6.17997572e-02 -1.50753662e-01  2.18787342e-01 ... -1.84320807e-01
     3.62567633e-01  1.89235702e-01]
   [ 2.86390245e-01 -1.84693992e-01  4.23395306e-01 ...  9.90486071e-02
    -4.15644683e-02 -2.24621207e-01]
   [-4.53355521e-01  3.74971092e-01  7.45987296e-01 ... -7.70623922e-01
     6.07436597e-01  2.29380101e-01]]

  [[-3.13765436e-01  4.18690711e-01 -6.43410921e-01 ... -4.15829793e-02
    -3.64093035e-01  3.34434584e-02]
   [-2.03657016e-01 -1.09073490e-01 -5.57089865e-01 ... -1.41065255e-01
    -1.37499857e+00  1.77214250e-01]
   [ 2.04825312e-01 -5.05159259e-01  2.47746423e-01 ...  9.39343721e-02
    -6.05995536e-01 -2.94403195e-01]
   ...
   [ 1.29311189e-01 -2.62933165e-01 -5.38499773e-01 ... -4.53419358e-01
     9.91655365e-02 -1.52485624e-01]
   [ 1.67127743e-01 -3.20793897e-01 -7.45735615e-02 ... -1.20691645e+00
    -2.41543710e-01  3.27895403e-01]
   [ 3.07261586e-01  6.55180737e-02 -9.20954704e-01 ... -1.21625221e+00
     2.19380319e-01  4.12130833e-01]]]]
[-0.32496744 -0.608501   -0.64851564 -0.62462676 -0.2653236  -0.48837104
 -0.8508594  -0.5696946  -0.7936276  -0.72539294 -0.25321946 -0.73208064
 -0.4809163  -0.55647737 -0.9074451  -0.41017032 -0.4556139  -0.40879464
 -0.03884162 -0.5276848  -0.9353198  -0.44350424  0.28587583 -0.5977865
 -0.29622278 -0.1415135  -0.4544446  -0.5156991  -0.5301368  -0.6831322
 -0.9116714  -0.20535791 -0.2555765  -0.9318745  -0.24828148 -0.75503486
 -0.69128805 -0.5750759  -0.6183148  -0.7905589  -0.39631182 -0.57427835
 -0.52588165 -0.52617896 -0.2689509  -0.4606081  -0.5338485  -0.7611819
 -0.49999446 -0.23801246 -0.78405124 -0.17634459 -0.5449352  -0.3875292
 -0.4330787  -0.75915676 -0.3819471  -0.74296325 -0.40406466 -0.23646818
 -0.6785435  -0.83862036 -0.70204943 -0.5626712  -0.9790963  -0.6374164
 -0.36194322 -0.13729288 -0.6568515  -0.41642052 -0.5370211  -0.45554328
 -0.5154513  -0.85669947 -0.66560405 -0.54236543 -0.57153475 -0.43033496
 -0.5588598  -0.80909693 -0.476866   -0.25403103 -0.6787791  -0.8486603
 -0.12551887 -0.62182397 -0.7569638  -0.7789717  -0.41196    -0.6133106
 -0.651753   -0.11742223 -0.80219156 -0.25928932 -0.8703398  -0.5280649
 -0.8639952  -0.6381748  -0.62186104 -0.36629236 -0.63712835 -0.19973028
 -0.3782018  -0.52409685 -0.46635085 -0.06835733 -0.7024183  -0.65746516
 -0.72330254 -0.20363787 -0.59788835 -0.4710679  -0.5433364  -0.6116381
 -0.4806031  -0.54502624 -0.4262593  -0.58159506 -0.7726965  -0.4475315
 -0.74863386 -0.62953544 -0.47018716 -0.54229224 -0.6804235  -0.757867
 -0.7097994  -0.53548324]
[[[[-0.16560136  0.24384944 -0.14866535 ... -0.23243771 -0.02567573
    -0.05413903]
   [-0.94422925 -0.47381893  0.02248585 ...  0.05265235 -0.27366984
     0.3799005 ]
   [-0.02729163 -0.13394837  0.28495878 ... -0.474957   -0.19794968
     0.38508645]
   ...
   [-0.21073046 -0.18258546  0.2260072  ... -0.6484469  -0.55911845
     0.41123956]
   [ 0.7822947   0.10174821  0.18701881 ...  0.3259946   0.09192599
     0.620974  ]
   [ 0.1234337  -0.2328418  -0.22941212 ... -1.0841738  -0.5679943
    -0.27058446]]

  [[-0.8831991  -0.3717021   0.27657655 ...  0.08483612 -0.08211967
     0.46178082]
   [ 0.412987    0.12245115 -0.01361521 ... -0.28729582 -0.07256708
     0.35442778]
   [-0.53399205  0.27839807 -0.12723735 ... -0.7300317  -0.5289029
    -0.6071447 ]
   ...
   [-0.13748707 -0.18541043 -0.83519167 ... -0.01321037 -0.534322
    -0.24279882]
   [-0.6951849  -0.03420583  0.29119202 ...  0.16285583  0.13985822
     0.14559133]
   [ 0.5719409   0.16662315 -0.02731709 ...  0.22383712 -0.17730045
    -0.2842137 ]]

  [[ 0.04885523  0.08221367 -0.21035193 ...  0.05209045  0.08337295
    -0.4595114 ]
   [ 0.12437457 -0.17629313 -0.27771083 ...  0.15764518  0.8444757
    -0.40889657]
   [ 0.32497305  0.57735705 -0.3549904  ...  0.56473255 -0.3260093
    -1.147325  ]
   ...
   [-0.17067222 -0.8039209  -0.07804561 ... -0.16601379  0.08076498
    -0.6412914 ]
   [-0.01223614  0.04216888  0.33877704 ...  0.78919023 -1.0213741
     0.02895755]
   [-0.05347877  0.02231268  0.66912353 ...  0.07222942 -0.35631448
    -0.6387911 ]]]


 [[[-0.58019     0.16443542  0.6245647  ...  0.34286872 -0.3892255
    -0.12117924]
   [ 0.02651518  0.0553461  -0.41289622 ...  0.01597296 -0.52395725
     0.0858818 ]
   [-0.06870107  0.34581438 -0.6485792  ... -0.12678382 -0.34357476
     0.68835974]
   ...
   [-0.11722086  0.35910466  0.6565652  ...  0.07191977  0.29523095
    -0.03891386]
   [ 0.2909843   0.16481009  0.099852   ... -0.31540528  0.00374064
    -0.12629464]
   [-1.2118543   0.43475595  0.22233197 ...  0.61447954 -0.15199314
    -0.18935303]]

  [[-0.79303306 -0.41858178  0.11407302 ...  0.12367461  0.18073592
     0.02596339]
   [ 0.3118842  -0.13076667  0.2183148  ...  0.3565574  -0.06562669
    -0.02346921]
   [-1.012873    0.01772923 -0.6611917  ...  0.08571151  0.53957015
     0.24861775]
   ...
   [ 0.28992775  0.09404057 -0.1344336  ... -0.31417724 -0.00966485
     0.06173393]
   [-0.30334187  0.08601333 -0.11534387 ...  0.15582454  0.15494427
     0.00749534]
   [ 0.1725406  -0.18496563 -0.5259847  ...  0.24434628 -0.04689261
     0.02723581]]

  [[ 0.27508175  0.29876596  0.35249427 ...  0.15150514 -0.02957238
    -0.51133215]
   [ 0.4321183  -0.03041068 -0.07585143 ...  0.13561508  0.3118596
    -0.03852031]
   [ 0.08463272 -0.16157156 -0.07990495 ...  0.02046145 -0.55652606
     0.20051372]
   ...
   [ 0.1902758  -0.180932    0.02270789 ...  0.37946847  0.21035694
    -0.12078808]
   [-0.46900904 -0.08079642  0.4947152  ...  0.45879248 -0.1851799
     0.0926604 ]
   [-0.2646595   0.7515755   0.5235151  ...  0.18247263 -0.6563924
     0.24938034]]]


 [[[ 0.29250726  0.2908019   0.58559823 ... -0.15013707 -0.12873721
     0.2052593 ]
   [-0.34779665  0.04173147 -0.09730648 ... -0.3060338  -0.51125
    -0.089146  ]
   [-0.32729566 -0.48540854  0.8914831  ... -0.18145025  0.14624333
     0.6385642 ]
   ...
   [-0.47635207  0.3710123   0.7970807  ... -0.01797817  0.30585703
    -0.51644784]
   [ 0.09909853  0.2969147  -0.03986723 ... -0.34063327  0.14006454
    -0.21981208]
   [-0.32757428 -0.29723594  0.09274877 ...  0.34094065  0.25601462
    -0.11576013]]

  [[-0.8384735   0.00449683  0.22503899 ... -0.18400533  0.32091144
    -0.10429315]
   [-0.08666164 -0.03330983  0.22858706 ... -0.59790653 -0.3360261
     0.13762476]
   [-0.510108    0.2852659  -0.50068694 ... -0.35780412  0.3827775
     0.15647385]
   ...
   [ 0.49191338  0.04635977 -0.15754256 ... -0.0431084   0.24481148
    -0.73259544]
   [-0.27900136 -0.31555504 -0.20039134 ... -0.49964595  0.3105743
     0.24140725]
   [ 0.21708383  0.17277375 -0.5477204  ...  0.04145188 -0.27351764
     0.25981632]]

  [[ 0.76103634  0.32842976  0.6088556  ...  0.04551143 -0.00500399
     0.24949688]
   [ 0.3600328   0.21502464 -0.07554275 ...  0.02576969  0.09736631
     0.7047765 ]
   [-1.2799516  -0.5322353   0.311089   ... -0.25940624 -0.63530344
    -0.31742933]
   ...
   [-0.00836223  0.3273566   0.11328649 ...  0.13485503  0.19053683
     0.42295092]
   [ 0.09387765 -0.01693976 -0.41475838 ... -0.17706107 -0.08864927
     0.07454839]
   [ 0.4999958   0.28779462  0.32864967 ...  0.47733957  0.75962865
    -0.6671816 ]]]]
[-0.26950252 -0.5874711  -0.01450892 -0.4062366  -0.41785783 -0.40347618
 -0.06529511 -0.2892388   0.27639747 -0.38281134 -0.03556835 -0.3503065
  0.3179543   0.04661119  0.00111551 -0.48048046  0.11942317 -0.40913177
  0.05417606  0.05842602  0.04960461 -0.2951537  -0.48775566 -0.07664005
 -0.42190868 -0.00246214  0.20692644 -0.02530608  0.10458393 -0.5261105
 -0.3382714  -0.07591157 -0.48458242 -0.6167001   0.20246163 -0.43600863
 -0.35963014 -0.4130232   0.01971096 -0.23100989 -0.40005338 -0.01247446
  0.08086049  0.13545866 -0.04094803  0.03296501 -0.43293387 -0.43853262
 -0.2192142  -0.02904401 -0.41819742  0.10378983 -0.38646019 -0.48402077
 -0.47159508  0.25568452 -0.36147308 -0.4678617  -0.09446201  0.09189801
  0.18810897 -0.25381115 -0.10325322 -0.29535156 -0.580783   -0.4574238
 -0.05836216 -0.39369503  0.22449239  0.05318706 -0.41688105 -0.5163961
  0.0967506  -0.3923895  -0.16625622 -0.09718157  0.00401803 -0.4667052
 -0.51212907  0.25447825  0.16383985 -0.39806107 -0.07807252 -0.22008
  0.03434999 -0.16613548  0.13738692 -0.02794384 -0.44686294 -0.51008576
 -0.33694836 -0.36212987 -0.41038617  0.06166546  0.0286729   0.04248193
 -0.23187317 -0.50624627 -0.2579684  -0.00294137 -0.41971028 -0.38112822
  0.13571073 -0.00868838 -0.33503798  0.05472513 -0.27611923 -0.3567727
  0.08328521 -0.30671078  0.03530837  0.07841574  0.11310967 -0.36843807
 -0.32795554 -0.21933913 -0.4555468   0.09411313 -0.40940937 -0.38262072
 -0.26155418 -0.4168866  -0.10591372 -0.01784501 -0.04351636 -0.37124002
 -0.41734818  0.00226406]
[ 0.40996933  0.26625636  0.5776289   0.4560125   0.2078344   0.39678556
  0.46567333  0.44788295  0.8024433   0.3457823   0.9523439   0.41806442
 -0.0342877   0.6614967   0.5029437   0.2710154   0.26711595  0.32762513
  0.4609371   0.92112684  0.56829864  0.31365502  0.3943257   0.6286707
  0.28376368  0.65174335  0.82366025  0.41852763  0.89244515  0.31512722
  0.42110556  0.5418831   0.45466024  0.393258    0.7020025   0.35437858
  0.1731908   0.31926456  0.5552862   0.48165348  0.30610058  0.4877496
  0.48321146  0.7037889   0.58978534  0.97913563  0.36957085  0.506444
  0.34324154  0.49136832  0.19438136  0.8885158   0.5723362   0.4761121
  0.3345492   0.58592135  0.34297836  0.3595984   0.6774924   0.8688688
  0.94128925  0.44260105  0.5986786   0.4447185   0.4037545   0.35556248
  1.0526276   0.36545858  0.7102842   0.64699054  0.25722015  0.27641392
  0.5412797   0.49245223  0.4734299   0.6440612   0.76606566  0.295915
  0.26267734  0.7804978   0.7693691   0.21793328  0.5790594   0.4207915
  0.8421761   0.5196588   0.94647545  0.8104747   0.37301603  0.21538669
  0.33016998  0.3595267   0.29728106  0.41748154  0.76474565  0.8272982
  0.35263532  0.33507666  0.28523526  0.43314412  0.35741475  0.43331626
  0.54575557  0.67710227  0.36294886  0.7271      0.33265993  0.6366169
  0.65015316  0.43215546  0.53469443  0.4572413   0.80826324  0.4179455
  0.41679072  0.47190168  0.21862543  0.59167194  0.22708023  0.4220777
  0.34428993  0.4174022   0.5512328   0.7287111   0.3932803   0.33699733
  0.35106748  0.474356  ]
[-0.2674397  -0.12268699 -0.27480468 -0.01171235  0.00387032 -0.20773032
 -0.24133626 -0.04698442  0.00092464 -0.00484571 -0.3894798  -0.11625026
 -0.00365518 -0.01554064 -0.13935453 -0.11823849 -0.01389143 -0.09826116
 -0.05215769 -0.4379372  -0.13429269 -0.2224949   0.01132136 -0.33241406
 -0.03233932 -0.33741695  0.00986097 -0.14651445  0.00418016 -0.16363151
 -0.175711   -0.27277032 -0.02809782 -0.02219636 -0.15286137 -0.07219326
 -0.14196579 -0.09953944 -0.20797686 -0.12118939 -0.10848156 -0.26760584
 -0.02403585 -0.3578795  -0.27414402 -0.00687665 -0.02468337 -0.06883936
 -0.17523564 -0.15736268 -0.08725331 -0.00330104  0.01962454  0.03818383
 -0.1567413  -0.00170528 -0.09319406 -0.06400258 -0.3230614  -0.3417337
 -0.40222925 -0.23523556 -0.30333132 -0.11918737 -0.08238386 -0.0272107
 -0.00529119 -0.1042109  -0.01438175 -0.3124089  -0.07049622 -0.06517399
 -0.08237261  0.01828856 -0.09225711 -0.3363985  -0.41647443 -0.1461232
  0.00938867 -0.1973101  -0.4527506  -0.08336925 -0.24811861 -0.15370005
 -0.28189582 -0.24578235 -0.2897819  -0.39821827  0.00350813 -0.10787404
  0.00739916 -0.07094754 -0.10701448 -0.13576487 -0.25249198 -0.51026064
 -0.00675615 -0.09486    -0.2132959  -0.3377797  -0.04468226 -0.15024696
 -0.22195499 -0.30451465 -0.0863071  -0.3186062  -0.13781722  0.06799495
 -0.31544888 -0.08449717 -0.2764688  -0.0793407   0.01341641 -0.15978123
 -0.1073918  -0.18872514 -0.03732331 -0.21558227 -0.11578713 -0.12218716
 -0.24773525 -0.11035866 -0.33481538 -0.3006604  -0.24545859 -0.17986822
 -0.1498616  -0.29168108]
[0.06710441 0.02814748 0.6233496  0.08197077 0.06846323 0.04820915
 0.17550407 0.03602825 0.999998   0.02113046 0.7775604  0.03131458
 0.999998   0.999998   0.939409   0.02974946 0.999998   0.02798491
 0.9977983  0.80917263 0.8866514  0.04241152 0.01141799 0.5273863
 0.03594084 0.74169433 0.999998   0.23659597 0.999998   0.02193289
 0.08641633 0.27483824 0.01454648 0.01717145 0.83691275 0.04730751
 0.00582487 0.0195429  0.64457464 0.39252582 0.02349201 0.25945446
 0.999647   0.64069194 0.7160523  0.999998   0.07659968 0.01562059
 0.04264225 0.916156   0.01159706 0.999998   0.05921293 0.03969982
 0.05105449 0.999998   0.03868411 0.03707709 0.5045228  0.8244116
 0.8026131  0.08585545 0.32306713 0.05632765 0.02053516 0.01515219
 0.9998685  0.03625664 0.999998   0.6051072  0.01656032 0.01041427
 0.9836094  0.19994287 0.9716993  0.41070285 0.8034115  0.02314895
 0.01898867 0.923688   0.66453534 0.00950196 0.5994986  0.07235632
 0.8510973  0.491995   0.82548213 0.7484398  0.08289745 0.00400899
 0.01487832 0.03478262 0.01622571 0.9434636  0.8347396  0.6642502
 0.03656285 0.05980804 0.02839249 0.2996137  0.03371146 0.04739423
 0.7711012  0.81057566 0.02840904 0.6026078  0.0589357  0.02805715
 0.6074688  0.11967012 0.6064443  0.99115866 0.999998   0.0714317
 0.01895239 0.08380987 0.01500897 0.7725078  0.0090708  0.042197
 0.07191551 0.02871227 0.44026178 0.738084   0.17996565 0.01956133
 0.03528562 0.09973086]
[4.68808226e-02 1.85067300e-02 1.97798923e-01 5.69033213e-02
 4.44189385e-02 3.20805162e-02 1.21543318e-01 2.60039885e-02
 2.12817489e-13 1.66319534e-02 1.38576001e-01 2.45825332e-02
 1.18749531e-12 4.82342681e-12 3.76014821e-02 1.85189918e-02
 1.29758227e-11 1.83179546e-02 8.69185897e-04 1.19824767e-01
 7.40240142e-02 2.71033328e-02 8.03687889e-03 1.95973903e-01
 2.66619660e-02 1.55900151e-01 1.28591261e-11 1.42397329e-01
 2.62596091e-11 1.29755447e-02 5.52422702e-02 1.72173291e-01
 1.02656288e-02 1.15282387e-02 1.07385099e-01 3.02104503e-02
 3.06502846e-03 1.25489961e-02 1.76369071e-01 1.91161841e-01
 1.61559563e-02 1.46328226e-01 5.57071435e-05 1.79014117e-01
 1.58762202e-01 3.43709913e-12 5.36299534e-02 1.08832261e-02
 2.76194606e-02 5.90629056e-02 6.35449355e-03 3.88557554e-11
 4.15283255e-02 2.91321948e-02 3.34444717e-02 3.16415366e-11
 2.72917300e-02 2.62708217e-02 2.00597107e-01 1.17832027e-01
 1.22469746e-01 6.00577928e-02 1.73253730e-01 3.91426720e-02
 1.41954683e-02 1.01464745e-02 1.33044477e-05 2.58164871e-02
 8.29189495e-12 1.84002250e-01 1.07715949e-02 7.44256703e-03
 9.89846885e-03 1.31591707e-01 1.57440212e-02 1.87810004e-01
 1.17881455e-01 1.48258535e-02 1.46195022e-02 5.81415892e-02
 1.81418449e-01 6.26325794e-03 1.91356391e-01 4.88631837e-02
 9.27342921e-02 1.96669146e-01 1.12789549e-01 1.49517983e-01
 5.67026436e-02 2.24398007e-03 1.04580186e-02 2.31411513e-02
 9.32316575e-03 3.56713608e-02 1.06590733e-01 1.68962479e-01
 2.52117701e-02 4.29193564e-02 1.61547884e-02 1.55638769e-01
 2.42253039e-02 3.24045569e-02 1.34660691e-01 1.11981042e-01
 2.00309083e-02 1.88284636e-01 3.75419147e-02 1.98552441e-02
 1.88258007e-01 8.20789486e-02 1.90373719e-01 5.47174225e-03
 3.47876949e-10 4.59671281e-02 1.22466777e-02 5.22417128e-02
 1.05626564e-02 1.43359005e-01 5.79725765e-03 2.77192909e-02
 4.43788767e-02 1.97063275e-02 1.95035189e-01 1.58090115e-01
 1.09464616e-01 1.19960969e-02 2.43584048e-02 6.52874112e-02]
[[ 0.21418253  0.3642134  -1.0168116  ... -0.9285919  -0.01878997
   0.67251545]
 [ 0.33839867 -0.0420233   0.11508286 ...  0.50888073  0.56789535
   0.42884058]
 [ 0.5368477   0.10302497  0.5597318  ...  0.17723256 -0.2208026
  -0.36623594]
 ...
 [ 0.3066379   0.08125141 -1.2641416  ... -0.03763436 -0.12290414
  -0.0226012 ]
 [-0.10547816  0.6104461   0.4772064  ...  0.35603797 -0.2566612
  -0.00872354]
 [ 1.0645652   0.49969685  0.273161   ...  0.55695075  0.75623006
  -0.26056638]]
[ 0.22362642 -0.3348408  -0.1357243  -0.23865539 -0.51171803 -0.46519732
 -0.5877334  -0.35077763 -0.4635797  -0.6369781  -0.19709548 -0.6515961
 -0.26620784 -0.22187392 -0.13594143 -0.4524643  -0.3891429  -0.5846759
 -0.54136044 -0.15049875 -0.8715454   0.06467297 -0.1448088  -0.5224143
 -0.12028512 -0.76056    -0.5414119  -0.42122298 -0.62316936 -0.2965744
 -0.44965413 -0.24000804 -0.4881873  -0.3135391  -0.49393323 -0.53373164
 -0.7058203  -0.13369584 -0.24921808 -0.2955888  -0.81003726 -0.2957885
 -0.5673127  -0.44024655  0.2642762  -0.6822941  -0.43945834 -0.7788908
 -0.60421085 -0.32254833 -0.34526    -0.45095173 -0.10101982 -0.1563252
 -0.01967391 -0.12113459 -0.44668862 -0.50003    -0.3921922  -0.1338574
 -0.37210336 -0.08660662 -0.56299675 -0.05233119]
[[-0.21546774  0.4389315  -0.2794817  -0.00314245 -0.10428817 -0.13006116
  -0.58748245 -0.06104543 -0.05660768 -0.56874937]
 [ 0.30423898 -0.03988671 -0.32058364 -0.4308522  -0.2780032  -0.3405314
   0.45412767 -0.20566778 -0.0565187  -0.40012673]
 [ 0.12076312  0.4602119  -0.33369663 -0.23603596  0.13649817 -0.44227365
  -0.3233165  -0.35103032  0.16360497 -0.21897212]
 [ 0.31755754 -0.00889917 -0.5719073   0.17322497 -0.44530022 -0.1933382
   0.35844383  0.01921412 -0.11958937 -0.15258063]
 [ 0.00641509  0.21971433  0.26692417 -0.38382766 -0.05146879 -0.47939268
  -0.3639253  -0.37315255 -0.22290695 -0.61752474]
 [-0.13061003 -0.06375381 -0.11335375 -0.28509066 -0.2205383  -0.32152402
   0.30581927 -0.17733566 -0.37748986  0.16165638]
 [ 0.05103454 -0.7543675   0.40297168 -0.04205174 -0.35964373 -0.17848562
  -0.16111535 -0.49398446 -0.18538332 -0.7900313 ]
 [-0.00715204 -0.1411351  -0.14113429  0.2942891  -0.32910275 -0.00475959
  -0.41957027 -0.13228422 -0.35262105  0.41652283]
 [ 0.21028176 -0.2596919   0.18713614  0.15559857 -0.27742884 -0.23334944
  -0.3349742  -0.02962272  0.11508282  0.07965256]
 [-0.00958825 -0.5955135  -0.5482415  -0.13515477 -0.40732896 -0.27561072
  -0.78082126  0.148965   -0.40778598  0.33971176]
 [-0.37968904 -0.1740663  -0.49948645 -0.00167639 -0.2984845  -0.6472191
  -0.63780814  0.2726401  -0.29214972  0.37604553]
 [-0.4765256  -0.3533364   0.22550634 -0.223802   -0.7348324  -0.45501325
  -0.27397308 -0.07018    -0.2827566  -0.41761464]
 [-0.16435224 -0.5634646  -0.36744058 -0.4010277  -0.12122491 -0.5110756
  -0.402745    0.31741834 -0.03305504 -0.11238307]
 [ 0.36388692 -0.26202112  0.22215888  0.08398868 -0.10356427 -0.08826686
  -0.309226   -0.09235501  0.00186115 -0.52221775]
 [-0.01620899  0.24837212 -0.10663674  0.3467434   0.06352928 -0.30128407
   0.27382305 -0.53528506 -0.31371787 -0.15234132]
 [-0.26981455 -0.7665775  -0.3399178  -0.47519326  0.2772493  -0.35322496
  -0.06668351 -0.3851528  -0.34189153 -0.2269287 ]
 [-0.45091817 -0.5034344   0.14242189 -0.00868082  0.16963054 -0.26807916
  -0.10486218 -0.38447347 -0.29429    -0.0977973 ]
 [-0.02517681 -0.27121451  0.37546358 -0.1868275  -0.4643387  -0.13593866
  -0.15581429  0.3089769  -0.34911385 -0.46061713]
 [-0.42757294  0.11108293 -0.546664    0.16732845 -0.69874966  0.07715661
   0.11243869 -0.46832314 -0.15099162 -0.07385   ]
 [-0.2322195  -0.14308837  0.25991297  0.22603217 -0.49924937 -0.30384147
   0.07637168 -0.46597415 -0.05512303 -0.43002418]
 [ 0.3954669  -0.76388985 -0.11373683 -0.14416863  0.0219456  -0.36326545
  -0.05213022  0.05894178 -0.2079783  -0.05863431]
 [-0.9392028  -0.3987532   0.12162892 -0.7575003   0.2611283  -0.10521659
   0.21342713 -0.2711905  -0.46524134 -0.07983501]
 [-0.6160347  -0.96513647 -0.71391666 -1.070053   -0.19829634  0.3912524
  -1.1334393   0.28546107 -0.34594944  0.24746716]
 [-0.02962562 -0.39127946  0.22005369 -0.28200662  0.31397116 -0.18556139
   0.02993655 -0.18970215 -0.5486515  -0.642472  ]
 [-0.13154261 -0.27827936 -0.2466356   0.29555458 -0.5657157  -0.20695627
  -0.4942611  -0.09551063  0.38551906 -0.5090457 ]
 [-0.40045092 -0.84222585  0.17247531  0.35863474 -0.2599931  -0.30511293
   0.01857272 -0.27894947 -0.41721046 -0.02769931]
 [-0.5487758   0.17031476 -0.3333447   0.07022141  0.21810873 -0.18786265
  -0.383075   -0.40251815 -0.34246227 -0.06894863]
 [ 0.39895624 -0.26354477 -0.45404512 -0.59644383 -0.5601179   0.31174996
  -0.08696147 -0.00778604 -0.26213777  0.16560495]
 [-0.2993138  -0.37757766 -0.36033127 -0.3832381  -0.29240695 -0.3609732
   0.23063709 -0.48793337 -0.37898868  0.29710072]
 [-0.30786416 -0.3893798  -0.16690488  0.17807308 -0.18753104  0.3351702
   0.13552643  0.18506159 -0.25148648 -0.3202322 ]
 [-0.44271365  0.10893439 -0.3589489  -0.10307428  0.15435834 -0.28625697
   0.18661857  0.21518628 -0.154949   -0.57401663]
 [-0.09563335 -0.03362966 -0.14917834 -0.63535434  0.43863463 -0.02235417
  -0.05741545 -0.29440212  0.2631533   0.277087  ]
 [-0.01236403  0.34794912 -0.12548743 -0.2728008  -0.48043016  0.06076076
  -0.586585   -0.37085286 -0.3474258  -0.63968426]
 [-0.35638988 -0.0056777  -0.35295573 -0.50790834 -0.23768876  0.02036849
   0.18212882  0.06073625  0.35221753 -0.00504807]
 [ 0.35805273 -0.24642757 -0.2194443  -0.00201435  0.19136286 -0.1955293
   0.23831551 -0.16521256 -0.38928065  0.19839062]
 [-0.5119675  -0.31269166 -0.2074415  -0.11513868  0.52660525  0.149578
  -0.27283546 -0.1032805  -0.15171476 -0.5923979 ]
 [-0.29175425 -0.4075858   0.129027   -0.6830341  -0.10276448  0.19182794
   0.04185507 -0.46331918  0.32610974 -0.24476278]
 [-0.17241277 -0.27178597 -0.5534902   0.62134993 -0.03327382 -0.47333947
   0.08427648 -0.09348581  0.00438575 -0.3048456 ]
 [-0.35854492 -0.54708254 -0.39800546 -0.15345165 -0.71144474 -0.02462666
   0.09384621 -0.11230011  0.1370184   0.3217003 ]
 [ 0.3136443   0.24644774 -0.16521484  0.2816945  -0.15150309 -0.19886152
  -0.27058342 -0.36204505 -0.1808374  -0.1213696 ]
 [ 0.07530244  0.29402816 -0.3321543  -0.36228555  0.07545662  0.08224726
  -0.3166954  -0.21329951  0.53679675 -0.24911083]
 [ 0.20985962 -0.85446787  0.24832088 -0.36117056 -0.2957637  -0.5557981
  -0.1303435  -0.23175786  0.17263056 -0.02948073]
 [ 0.24274455 -0.33555636 -0.4001566  -0.4783248  -0.5720037  -0.07581875
   0.3617352  -0.22263305 -0.01043328 -0.5267645 ]
 [-0.6408741   0.59707654 -0.44421324 -0.6000204  -0.08115813 -0.00218245
  -0.23285933 -0.17023052 -0.03937969 -0.632852  ]
 [-0.3657466  -0.17319909 -0.5856227  -0.02835709 -0.8173177  -0.42966485
  -0.20585346 -0.4393932   0.4007746  -0.17434707]
 [-0.06193234 -0.71664774  0.07688481 -0.48451146 -0.48166025  0.53974706
   0.03383321 -0.22251888  0.13045622 -0.5250014 ]
 [ 0.4063752  -0.2072756   0.11592657 -0.09030797  0.23363203 -0.10522003
  -0.00302056 -0.4323752  -0.15720075 -0.6274282 ]
 [-0.36246789 -0.03158979 -0.14287269 -0.4945094  -0.5491814  -0.05919432
   0.47726998 -0.31192487 -0.01952439 -0.10748999]
 [-0.59709686 -0.06677786  0.2009401  -0.82990116  0.00335128 -0.07532829
  -0.28190303 -0.10544217 -0.38165644 -0.2508365 ]
 [-0.00403494  0.01414437  0.13494882 -0.6138734   0.19544232  0.16028997
  -0.20501441 -0.23998761  0.21339126 -0.34446344]
 [ 0.30609295  0.07803209  0.28700563 -0.31107226 -0.39484173 -0.26732102
   0.08226376 -0.00225091 -0.15919493 -0.18820661]
 [ 0.5285005   0.22319752  0.1276046  -0.5802502  -0.16188768 -0.6225419
  -0.30862534 -0.15723151 -0.07800684 -0.31265205]
 [ 0.15581273 -0.4046011   0.30970418 -0.27099305 -0.1832464  -0.37741348
   0.1880388  -0.4462325  -0.21861243 -0.40611282]
 [-0.2780078  -0.40611485 -0.09310409  0.13656864  0.133825   -0.41841286
   0.1468767  -0.21463303  0.22802484 -0.36187106]
 [ 0.27871826 -0.4064197   0.06231042  0.38928568 -0.13474336 -0.16736569
   0.06115989  0.02580127  0.07851274 -0.50495094]
 [-0.16275968 -0.47909048 -0.07885189 -0.19692476  0.02635121 -0.7235634
   0.30134186 -0.54524267  0.04521808 -0.1917118 ]
 [-0.69492835 -0.27634522 -0.49340427 -0.5324337  -0.32681173 -0.3400011
   0.24522775  0.25194225  0.2029166  -0.6101341 ]
 [-0.40142125 -0.26617524 -0.35417867 -0.04882176 -0.3426706  -0.3933486
  -0.69104284 -0.33786663  0.1789533  -0.7048116 ]
 [-0.01470596 -0.0494119   0.14225173 -0.13241442 -0.4910357   0.23607826
  -0.48889622 -0.5936829  -0.21396726  0.03615031]
 [-0.2875406   0.38715315 -0.20175639 -0.49426627  0.08345284 -0.55089927
   0.00325626 -0.5186709  -0.21268156  0.15494913]
 [ 0.2292615  -0.05460994 -0.30491188  0.19580099 -0.00875264  0.04902809
   0.31392646 -0.61099523 -0.28200683 -0.46587822]
 [-0.23301889 -0.28468147 -0.08274221  0.10039593 -0.55160445  0.19857214
  -0.52421916  0.10210466  0.42997703  0.03509443]
 [-0.41484013 -0.42985824 -0.31195623 -0.510352   -0.18555306 -0.15692961
   0.18341574 -0.21440606  0.04439167  0.38926196]
 [-0.33242002  0.19144602  0.13132928  0.23786598  0.10084261 -0.24680057
  -0.42402393 -0.26588008 -0.10041603 -0.6053888 ]]
[-1.4328083e-01 -1.0615972e+00  8.2003571e-02  3.5917458e-01
 -2.3287117e-01 -4.1634235e-01  3.7647307e-01  1.3558103e-01
 -9.1717549e-04 -2.5530136e-01]
